digraph Tree {
node [shape=box, style="filled", color="black"] ;
0 [label="recall <= 0.01\ngini = 0.639\nsamples = 53000\nvalue = [1041, 19332, 9001, 23626]\nclass = none", fillcolor="#fae6fc"] ;
1 [label="gini = 0.0\nsamples = 23596\nvalue = [0, 0, 0, 23596]\nclass = none", fillcolor="#d739e5"] ;
0 -> 1 [labeldistance=2.5, labelangle=45, headlabel="True"] ;
2 [label="accuracy <= 0.898\ngini = 0.473\nsamples = 29404\nvalue = [1041, 19332, 9001, 30]\nclass = large", fillcolor="#a2f29b"] ;
0 -> 2 [labeldistance=2.5, labelangle=-45, headlabel="False"] ;
3 [label="num_train <= 527.5\ngini = 0.373\nsamples = 8605\nvalue = [75, 2003, 6510, 17]\nclass = medium", fillcolor="#78bced"] ;
2 -> 3 ;
4 [label="error_type2 <= 0.049\ngini = 0.293\nsamples = 7395\nvalue = [75, 1206, 6100, 14]\nclass = medium", fillcolor="#62b2ea"] ;
3 -> 4 ;
5 [label="consistency <= 0.944\ngini = 0.49\nsamples = 736\nvalue = [75, 492, 169, 0]\nclass = large", fillcolor="#96f08e"] ;
4 -> 5 ;
6 [label="gini = 0.382\nsamples = 662\nvalue = [1, 492, 169, 0]\nclass = large", fillcolor="#86ee7d"] ;
5 -> 6 ;
7 [label="gini = 0.0\nsamples = 74\nvalue = [74, 0, 0, 0]\nclass = extra_large", fillcolor="#e58139"] ;
5 -> 7 ;
8 [label="bias_test <= 0.099\ngini = 0.195\nsamples = 6659\nvalue = [0, 714, 5931, 14]\nclass = medium", fillcolor="#51a9e8"] ;
4 -> 8 ;
9 [label="gini = 0.443\nsamples = 1117\nvalue = [0, 370, 747, 0]\nclass = medium", fillcolor="#9bcef2"] ;
8 -> 9 ;
10 [label="gini = 0.121\nsamples = 5542\nvalue = [0, 344, 5184, 14]\nclass = medium", fillcolor="#47a4e7"] ;
8 -> 10 ;
11 [label="bias_test <= 0.108\ngini = 0.451\nsamples = 1210\nvalue = [0, 797, 410, 3]\nclass = large", fillcolor="#a6f29f"] ;
3 -> 11 ;
12 [label="accuracy <= 0.881\ngini = 0.266\nsamples = 500\nvalue = [0, 421, 79, 0]\nclass = large", fillcolor="#6aea5e"] ;
11 -> 12 ;
13 [label="gini = 0.456\nsamples = 74\nvalue = [0, 48, 26, 0]\nclass = large", fillcolor="#abf3a4"] ;
12 -> 13 ;
14 [label="gini = 0.218\nsamples = 426\nvalue = [0, 373, 53, 0]\nclass = large", fillcolor="#61e955"] ;
12 -> 14 ;
15 [label="necm10 <= 1.084\ngini = 0.502\nsamples = 710\nvalue = [0, 376, 331, 3]\nclass = large", fillcolor="#e9fce7"] ;
11 -> 15 ;
16 [label="gini = 0.495\nsamples = 568\nvalue = [0, 324, 241, 3]\nclass = large", fillcolor="#d0f8cd"] ;
15 -> 16 ;
17 [label="gini = 0.464\nsamples = 142\nvalue = [0, 52, 90, 0]\nclass = medium", fillcolor="#abd6f4"] ;
15 -> 17 ;
18 [label="necm25 <= 0.178\ngini = 0.289\nsamples = 20799\nvalue = [966, 17329, 2491, 13]\nclass = large", fillcolor="#6aea5f"] ;
2 -> 18 ;
19 [label="error_type2 <= 0.007\ngini = 0.076\nsamples = 686\nvalue = [659, 27, 0, 0]\nclass = extra_large", fillcolor="#e68641"] ;
18 -> 19 ;
20 [label="num_train <= 1033.5\ngini = 0.025\nsamples = 634\nvalue = [626, 8, 0, 0]\nclass = extra_large", fillcolor="#e5833c"] ;
19 -> 20 ;
21 [label="gini = 0.022\nsamples = 633\nvalue = [626, 7, 0, 0]\nclass = extra_large", fillcolor="#e5823b"] ;
20 -> 21 ;
22 [label="gini = 0.0\nsamples = 1\nvalue = [0, 1, 0, 0]\nclass = large", fillcolor="#47e539"] ;
20 -> 22 ;
23 [label="auc_alberg <= 0.025\ngini = 0.464\nsamples = 52\nvalue = [33, 19, 0, 0]\nclass = extra_large", fillcolor="#f4caab"] ;
19 -> 23 ;
24 [label="gini = 0.343\nsamples = 41\nvalue = [32, 9, 0, 0]\nclass = extra_large", fillcolor="#eca471"] ;
23 -> 24 ;
25 [label="gini = 0.165\nsamples = 11\nvalue = [1, 10, 0, 0]\nclass = large", fillcolor="#59e84d"] ;
23 -> 25 ;
26 [label="bias_test <= 0.078\ngini = 0.244\nsamples = 20113\nvalue = [307, 17302, 2491, 13]\nclass = large", fillcolor="#64e959"] ;
18 -> 26 ;
27 [label="necm10 <= 0.131\ngini = 0.143\nsamples = 14552\nvalue = [307, 13441, 799, 5]\nclass = large", fillcolor="#56e749"] ;
26 -> 27 ;
28 [label="gini = 0.456\nsamples = 548\nvalue = [193, 355, 0, 0]\nclass = large", fillcolor="#abf3a5"] ;
27 -> 28 ;
29 [label="gini = 0.123\nsamples = 14004\nvalue = [114, 13086, 799, 5]\nclass = large", fillcolor="#54e747"] ;
27 -> 29 ;
30 [label="num_train_processed <= 628.5\ngini = 0.425\nsamples = 5561\nvalue = [0, 3861, 1692, 8]\nclass = large", fillcolor="#98f090"] ;
26 -> 30 ;
31 [label="gini = 0.502\nsamples = 2954\nvalue = [0, 1429, 1517, 8]\nclass = medium", fillcolor="#f4f9fd"] ;
30 -> 31 ;
32 [label="gini = 0.125\nsamples = 2607\nvalue = [0, 2432, 175, 0]\nclass = large", fillcolor="#54e747"] ;
30 -> 32 ;
}